{"player": {"player": {"weights": [{"__ndarray__": [[0.18256106164328814, -0.4592667290020469, -1.2078844898963148, 2.0206269812403317, -0.25619543693206887, 2.185383037757657, -1.1848293982522684, 1.712208362930108, 1.0092131330965732, 1.7403777696913691, -0.8301167614195736, -0.3424663445236541, 2.020173217710452, 0.7251582338881347, 0.37411017647640016, -1.9366601284898532, 0.8791540409754849, 1.3243214648772947], [0.862649953254047, 1.137113869017231, -0.19465459967457188, 0.06492084474472554, 3.4197431572667525, -0.4070022100789286, -0.9196449807682385, -0.8709598759910386, 0.578225972549685, 3.918611851405874, 0.5621483400779641, 1.4355995751891426, 1.7610567978005833, -1.8491691808141306, 0.3516066741122217, -0.8592656559424009, 0.7122374137848664, -0.5080678813845043], [1.2455157404858361, -1.038882721707469, 0.1200376021403726, -0.9119936205961351, -2.357583214898424, 1.514938472082524, -0.5979700811804609, 1.0378579030030295, 0.9912630502879184, -0.1793461576350536, 0.707823418902634, 0.2468845996020987, -0.8898084897742451, -0.3135689515884271, -1.7638047241865034, -1.4800649647627049, -0.2678399356489231, -0.9165753339652712], [-0.12580745888414263, 0.7906662455780649, -1.5877727868114628, -0.4607295570518428, 0.6487444857165438, 0.8122158765856353, -0.2371323916983662, -0.9265259699288245, -0.898083802086873, -2.231430260320855, -0.7009910103300018, -1.0577515685967822, -2.4927443263816715, 1.4515518845723214, -0.6586317025562155, -0.6518239379065377, -1.2593854662373543, -0.09454844144289555], [0.38756537115323586, -1.3601181550968584, -2.569719704477875, -1.6732327071547577, -2.155693050993925, 1.1657367115413118, -0.8823135594115948, -1.2136335421601654, 1.273326330871323, 3.276282661303806, -0.9621147707644533, 1.6647802446025166, 0.969494405829131, -2.625073643776844, -1.248298885266646, -0.794039599476291, -1.8234492525280521, 1.4796839385955196], [-0.12604840132392772, -0.15392043375399167, -2.6816905299273484, -0.9788129747862011, -0.2434654840654572, -0.1036422665213543, -0.9932659908923568, -0.48525327397859813, 2.2646435678229855, 1.5229382585319493, 0.4359349415220038, -0.6476662033946455, -0.808644354290527, -1.3159792047747536, 0.1715912138930418, -0.7502515538739959, -3.278922796509359, -1.6405749797040106], [1.1487128794133454, 0.724979803265806, -1.9425683007560646, -1.647173673261141, 0.32610004888350436, -0.24151667217179024, 1.5364347242547196, 0.9048363382075185, 0.27851634392612323, 1.7283178427033814, 0.09337692802241726, 1.7463284221003386, 0.1474827943275186, -0.6795475199082032, 0.7153241415414388, 0.0013910547832850892, -0.3595013980809837, -2.8705204237451585], [0.7849737825405608, -1.2334478339146675, -1.1660339764369057, 0.6850939010069557, -1.305121484326961, -0.05482933544770185, -0.9748882466516193, -0.3808907823476205, 1.005818371869982, 2.1288956543077617, 1.7058035949255217, 3.08714098729423, -0.5371119856847286, 1.839506851039724, 0.3832386554924418, 1.512512313300863, -3.257184174563213, -3.7316548405951013], [-0.9211670562848491, 0.6634144306948071, -0.5482870259201781, -1.0469702204290219, 3.5490934542986756, -1.3277306328324192, -1.6186928311830098, -0.8671549315908719, -0.5359884151840753, 2.1617368862105804, -1.960960587362129, 2.1752063872849514, -0.5393295889379002, 0.6864834660618634, 0.5197261197728911, 1.183536889599505, 2.809687106978579, -2.1055254537128696], [-0.8618124817803534, -0.4521220083355069, -1.1978598215877043, -0.5622479715393256, -1.5053499801449015, -1.5667430660463075, 0.6740556208629497, -0.030663303272602284, 0.1068967875841011, 0.16668213755490804, -0.6576113425614004, -1.0804320612799914, 0.20260171962792042, 1.3141490531736857, 1.3115325905678565, -0.12493384465486052, 0.2756659607468702, -0.46703504123403894], [0.4870972831679524, 0.7441743553128886, 1.4925605163202484, 2.057807448099908, 0.18043003324054613, -2.5273062648955533, 1.2867172572407488, 2.926850844028597, -1.728345071786174, 0.4019283690572803, -0.6564969749579151, 1.8976105146951945, -0.43920457938313634, -1.730339085990895, 1.3687053866062888, 1.3364367027556223, 1.0212539131633718, 0.36562663822333963], [0.4094759111154511, -2.2179795885001288, 0.5135853116545337, -1.1420606028017937, 1.0221003763714749, 1.0674527284339261, -0.8612947148185279, 1.140587050945681, 0.9772670971178414, -0.9148010493391712, -0.3586895331633207, -1.2538093345283623, 0.11828571683975359, 2.465067337239853, 0.3774214400939813, 4.473177100985246, -1.7427158811174714, 1.3934815142261843], [1.2796652286637287, -0.2549672682855482, 0.390399312825069, 1.444949331870304, 0.6392664841885681, 0.4060778742578229, -2.3741163833444148, -0.0686731743760381, 0.7221213114927029, 1.906101795674325, -0.45755406878743576, 0.7696200237933142, -0.8829340830799987, 0.14614001717630742, 0.04361508781740719, 1.4670711886437595, 0.08284392459336533, 0.23387071250353045], [0.9895676970663965, 1.999615453785125, 0.14568392838886213, 0.9394634370952106, -1.1771226593951163, 0.3339242195731849, 0.09594015399104276, 1.7058913519871215, -0.966117218837945, 0.6414332170462664, -0.27859530281637385, -1.3156044503516047, -1.9463994152069346, 2.220368931493976, -0.7765026181548605, -1.3829475065732542, 1.0302116903350325, -1.0255442594511444], [1.8247575828842157, 1.8285365246750698, 0.8500918204889033, 0.2364554233755551, -0.5881943376081658, 0.41461907030194084, 1.8270712453489744, 1.0626393534911425, 0.5939911890840079, -0.26646751344105807, -0.782408831024907, 1.205620811585312, 0.4037302983331907, -0.46124791112188673, 3.4875143936879733, 3.72024867078701, -1.1609190968543752, 1.5722004253979012], [1.0093794252767962, -0.528329537640041, -0.4885401772381826, 0.9241528961279428, 1.0317212185119575, 1.4098899459622267, 0.5252577569310581, 0.9101495978833772, 0.6857955959185603, -0.4048765019629278, 0.1495459039396063, -2.7040826708183343, 0.2144422529250828, -0.05308698791744466, 2.1254668423373855, -0.7071673445193353, -2.8274188248029697, -0.3052495288398931], [-1.4149268980341885, 2.6551046040928563, -0.10923938476835945, 0.5237560714772, -1.054409990194115, -1.1757314972355295, 0.6198120785915067, 0.8009735317734532, 1.083580094669453, -3.1003592072306114, -0.22128916509414914, -0.9229842003037257, -1.0511360428008836, 0.1922669566276094, -0.5502080859552179, -1.3945324008819864, -0.27575717885318657, -1.2554583506511197], [0.8796484778167486, 1.1588352371039432, 0.5936079470797, -1.7552633208655177, -0.08164508330324281, -0.4242411915534895, -1.7623767174019582, 2.0048820779267844, -0.17546295524048167, -1.10679568778985, 0.7385433504655758, 0.081995438067138, 1.084005293212255, -0.7464206216164837, 0.7202840860974569, -2.388532790510859, 0.5866044021745502, -0.13518151537180517], [-2.349989517019497, -1.0268828710916684, 0.4750779592345194, 0.8305182142774006, 0.4620570466017399, 0.2979399060957221, -1.1335725389499185, -0.32227657186798453, 0.6668545655704912, -0.9212161849868185, 0.2781321676733338, -0.08937563108151098, 1.6731659209978258, 1.718852962760065, -0.5780932484878402, -0.8285291667806108, -1.8772857026980134, -0.578916535814139]], "dtype": "float64", "shape": [19, 18], "Corder": true}, {"__ndarray__": [[-2.17204891670665, -0.1421987042627926, 1.8409622186557497, -0.5455140032082969, -0.179129935758565, 0.19045059493220715, -0.3090233974015376, -0.8022405987131522, -0.6766360357520621, 0.9035123367449998, 1.611348304872255, -1.3964770654949226, -1.266034170603307, 2.2212215560733326, -0.44102743007514994, 1.5514639613562649, 0.8147938703874854, 1.5161415045187079], [-1.8787439973221123, -0.9296854509020723, -1.5033774075962723, 2.1367257149449874, -0.9900622304195477, -0.1953463924088374, -1.3570075026463408, -0.7517493908078853, 0.805647460599208, -1.794030221246814, -0.588837213546868, 0.9181557100295905, -1.168506757137242, 0.2332150680826529, -0.932667400643422, 0.576331966622144, 0.7563698244150555, -1.392457892490163], [-1.842167990896212, 0.6742478903565821, 0.10114404097226203, 1.4647413155815834, 0.7867062101045974, -0.21721389209615322, 0.5905365844389865, 0.09693694221542723, -0.7991279749068638, 1.8858379007632409, -0.3473381998545867, 1.974052964575308, 0.23051921053639712, 1.3925517650354502, 0.5223863824807125, -0.03689187214332992, 0.721109289243623, 1.6133556931229245], [-0.6474702881440277, -0.7379776313242559, -1.6778776665544193, 0.19044754831265442, 0.7623334227979518, -0.6864929292087607, -1.4204386448041717, 0.540538707816402, -1.027572762629331, 2.833733224298212, -0.5545560126984733, 1.878313250018592, -1.6465582939282446, -0.6812865375486106, 0.14158745127134043, -1.8706339453973257, 2.964231946798019, 0.24749954607375488], [0.18479273925521955, -1.1621685398071606, -1.4885945129394829, 0.8706085204443132, 0.37786958065101695, 1.3525851337783112, -2.760995360884726, 0.8310200475192662, -2.1381196901379154, -1.1341978567128685, -2.25431949641499, 1.9029137778810137, 1.9146173812740868, 0.24460668346265826, 1.0339383756572877, -0.24932283449041967, -0.20870595435398984, -2.9546962021730105], [-1.3564646983329307, 2.437903341329558, -1.72231453833797, -1.2975172837662676, -0.2593583351102547, 0.8207933486284882, -2.130881601181474, 2.138021940386923, 0.35038386324092907, -1.0138872059683743, -1.6116447733306662, -1.1628580058406024, 0.4907681939827961, 0.2300752245073855, -0.07692227514863183, -0.14962782001932587, 1.8459040404405793, -2.643918072127074], [-0.23847987680532928, -2.455059543933723, 1.0435025731434777, -1.0750929800673896, -0.5461895719512454, 0.18205232074359431, 0.45109569817350137, -0.07675529578148543, 1.0402221522416837, 0.20586222011642877, 0.23975952708122072, -1.444489956987491, 1.3671817044499492, 1.2838830867568538, -0.43424199904490796, -0.21943363135260324, -1.0173666246818376, 1.8179241692833539], [-0.36827947363799707, -0.6937624788908439, -0.3039903693211407, -1.7544932487261653, -0.9022740990029338, 0.8482793061377075, -0.2641589342350741, 1.1034365697199848, -0.5670024468560357, 0.39421745672463226, -0.34523008690254514, 0.9130257472928817, 0.3360544959357346, -1.255978065758815, 0.17425307623466843, -1.1845722251311601, -2.5279638793696315, -0.25658250912264086], [1.1349711953763462, -0.5431232834197679, 0.12095761128843409, 0.9653558382354611, -1.0516746559900727, -2.059846416891115, 1.9617187192905958, -1.011020742972106, -0.5114277040297118, 0.7567541347590546, -1.2531113291994003, -0.5812355162000261, 0.5949686086132253, 0.15454122196212697, 0.6422129203201309, 2.1753003460717224, -1.8540768637569567, -0.6023865995328803], [-0.6566211194237787, 0.45607102639013647, 2.099468090374103, -0.7098616719777475, 0.8637876500401906, -0.16174336809367132, -0.6661130886380423, -0.17614620009334, -0.7513612098073679, 0.48440628595497753, -0.8036420185144677, 0.3795927832105243, -0.6365499482623594, -1.4901636568648664, -2.5337213841944215, 0.7744168867774576, -2.2675270997646986, -0.7817007885970668], [0.6035676041531992, 0.35201055991293567, -0.8143394012623757, -0.8493605656037495, -0.7870773447392875, -0.3582240543104324, -1.3285576770401988, -0.9644178909449822, 1.6332927764012564, -0.7502754809043412, -0.636843046699049, 0.692832126289689, 3.187962342279809, 0.768178908201049, -0.5482345729252291, 0.8133146542620833, -1.5551961516660886, -3.2547634126492824], [-0.2351114176466781, -1.5215507556684689, -1.1513760538153461, 0.29767505912081643, 1.9576434243900356, -3.017288429971184, 0.7450215558764152, 2.6173076273097244, -0.6699574343694935, -0.9597736880062521, 0.8556645691371484, -0.28380597697864424, -0.06304333638845476, -1.5778469826540171, 0.3980905530549811, -1.5379659581774747, 0.589720620430816, 1.9151293872007962], [0.5872188721844539, -1.4454153834728396, 0.01589127853771776, 1.3129391165927031, -3.148268216541527, -2.511172052989164, -0.24405785961889767, -2.210697715501208, -0.6452439257626316, -0.12938926535149456, -0.457200210020237, 1.1992982808840107, 0.04923805795666467, -0.2963085210272881, 0.5856580517200243, 0.5666303441039303, 0.23918695419439145, -1.1298841551290797], [-0.6854721688269538, 0.32167147234983573, -1.0711465499927093, -2.6366381076085927, -0.029869314634645414, -0.4656720189407352, -1.3170983363838131, -0.20712393662631257, -0.9907344878293616, 0.9666132386096453, -0.43249274534955184, -0.47302215234373685, 0.8760865671349791, 0.3156400031784172, 0.4076230876793543, 0.4670959092645586, 0.34252112308249005, 1.469786364725555], [1.1197751414368027, -2.5044478000028616, 0.3290068498623691, -1.266080400818589, 2.06257775964805, -0.3874511667818562, 0.6667200686690454, -1.7528011476610916, 0.2917902137234259, -0.2919756388842293, 1.4883137620686582, -0.6513958824827649, -0.030502803075293284, -0.1534676921118051, 1.317765197101111, -0.4280535127354845, 0.024635138405269066, 1.836827564424196], [-1.0502364480214956, 1.065295017804365, -1.6916732306447027, 0.12244688263623407, 0.7754022647756025, -0.2925418892767655, 0.47684321274027214, 0.4180228969877319, 0.689272505384008, -0.04003173010639478, 0.3594886531458553, 1.4524649014457123, -0.09841740958543796, -1.0161085907876704, 0.49707191001518913, -0.4144128204147015, -2.1897352753156802, -0.4924472527612888], [-0.1202521812036703, -1.201792182745375, 2.801064194466001, -1.413801545314018, -0.3135409475058151, -0.3877802659726448, 0.7693087577926948, 1.3042326317873398, -1.140026731022106, 0.6091949306703066, -1.0504019733577106, 1.8167378581521096, 1.6319722805395418, 0.40515451801691543, 0.17012421735653532, 1.2765364788048823, -1.1546449041408262, -1.5817587234888615], [-0.3508987504963188, -0.9024660278188317, 0.7898818118602707, 0.029740673585593142, -1.7023829903709584, -1.640512284755778, -1.618066295430406, -1.0026403552252612, 0.004391541114539258, -2.1961574848142043, 1.2450956073508106, 0.09787449774907048, 0.529774491556375, -0.37075548274075154, -1.5913517356637332, 1.383123122817053, 0.20478678225071167, 3.0054811847982337], [0.9570896530605991, 0.9035783573052742, 1.7618454347751435, 1.2634127891786995, -0.3266185536648762, -0.7492748659957468, -1.2843507935003307, 0.9256790744434457, -0.7324197147605223, 0.334981362055632, 1.2580988515055553, -0.7089422878106637, -0.039494950831574574, -2.4695953054073065, -2.167515135663946, -0.681110793997483, 0.006891267042485925, -0.2837033504018553]], "dtype": "float64", "shape": [19, 18], "Corder": true}, {"__ndarray__": [[-1.7985162855702304], [-1.33338914249529], [-0.5875902826358849], [0.7294155103727484], [-0.09037565182942559], [1.589500134131846], [-0.37481454247214085], [-0.30830632859040097], [0.0408969989175219], [-0.10301502650619006], [1.5491962398399046], [-0.9640131106752005], [0.735505754141205], [0.37979712963726747], [0.303618676553382], [-0.07380497177540153], [-1.5909420016747073], [0.4181875514400343], [0.005365587790055745]], "dtype": "float64", "shape": [19, 1], "Corder": true}]}}}